const preloadedDroneData = `{"id":"92f5dfb4d8c26","WIDTH":0.5,"WIDTH_IN_PIX":75,"HEIGHT":0.2,"HEIGHT_IN_PIX":30,"MASS":1.5,"I":0.2,"MOTOR_THRUST":15,"BOUNDARIES":[[-50,50],[-50,50]],"GRAVITY":[0,-9.81],"pos":[0,0],"velocity":[0,0],"theta":0,"omega":0,"motorThrottle":[0,0],"motorAngle":[0,0],"active":true,"activeTime":60000,"totalDistanceTraveled":177471.36405429215,"distanceFromTargetTime":138445.81570381395,"numberOfTargetsReached":29,"timeAtTarget":0,"intervalId":null,"TIME_STEP":16,"brain":{"id":"86d18ef75a74","NUMBER_OF_INPUTS":6,"NUMBER_OF_OUTPUTS":4,"NUMBER_OF_NODES_IN_HIDDEN_LAYERS":[12,6],"MUTATION_RATE":0.1,"RANDOM_VALUE_LIMIT":2,"weights":[[[-15.927604064248928,17.204312257924414,1.1972427917234727,-1.8988738271150871,-1.0857753761730515,-1.1963459571840418],[-4.896676425350405,5.842601059838926,1.1904926396602435,-3.3463573530807125,1.778984233839832,-2.0144476339364847],[-4.238131747129173,4.877166479953444,2.423043236597401,-1.8366180054936574,5.034381274992026,5.539688966558444],[-13.61309984290127,-15.385225973546389,0.8235824720870878,0.1470546039986668,1.4121131300716256,-0.2880814856843855],[-2.8662208130320916,-3.787599732233679,2.292330599951296,2.3295244621900455,11.259558596054356,7.746643551483811],[5.477575848392116,2.7853346660142044,-2.5116630002782263,-1.564730064298588,-3.122168143585565,0.6591060189464446],[4.8924566581257745,6.1677519178316675,-2.37009074397304,-3.2541884105770924,5.770714762162422,4.851905940770909],[2.814785711086578,0.4076814032649188,-3.145000581030337,0.6813385821864791,-7.885500065194333,-5.403281351936244],[-0.9925985863009338,-0.1833453715129863,0.0621964058307766,2.609263248744013,-2.4462174229736657,-3.3201686536582855],[14.926987801177523,11.179118417197506,-1.4986142626820131,-1.7985498076743687,2.1142882765393587,0.29844182299122024],[-9.03308265460619,3.984758836261804,4.111324286727745,-1.7201798215095032,1.9751440835787013,1.0640525788740798],[7.028183637026561,-0.08352000074225925,-3.647126203508941,-0.40089118791927786,-3.3883287283279713,1.2375657508713418]],[[-3.7259573011746348,-1.274314486558805,-0.706857352338849,-3.524760782945121,-2.123299798811134,4.545602124904905,5.421067602827835,3.2631524850925917,-1.9568668370210418,5.752544353922803,-2.107317165704246,8.099655192162889],[-0.7740702201757803,-3.473984020279391,-1.8372543732984576,-2.8622289544560906,1.8091279760039172,-3.349123588515349,-3.542606813576501,5.157702766817423,-1.881084773683684,-2.325654384260828,-4.4402669862202835,4.22392543546169],[-3.7796433008036763,-1.36476376046417,-4.374936321831951,-0.038762641502418385,-3.1472836092461387,4.644589888962159,-0.8453944456803186,3.5503644527123708,1.1957161263719451,-0.3614591474187616,-3.767545732558716,4.019154422408953],[-6.07433252534267,-3.5777410432934054,-6.389677375944696,1.2658357028735743,-3.617187068682297,0.03911386460023468,-2.218393503860441,4.9437652455255146,2.6394168319358258,-1.5366138568775813,-3.4613517221793018,0.8991123408414383],[-1.8312854504030178,-2.677170380178203,1.7900374097757308,3.2568045185692824,13.167236620122518,-1.7090026813842043,-0.9569063079233141,0.8236457862010463,-0.7423832794334132,-1.1562315349121806,-1.297127863868722,-1.2970224299102635],[5.576329763276105,1.2482339233063933,4.743432741871979,-4.9647143692507365,0.5432984254305594,6.5140862343485235,8.550083910423266,-3.632230999369925,-3.6067662544833015,3.9678773494173587,0.09926358785502046,1.8493769979058583]],[[1.1568127916660278,0.45774108478215525,1.230928599473491,-0.47531411579252014,-7.866822764489113,1.8672042308599053],[0.15584079528661182,-1.4790672062078056,-3.167841520354316,-4.564152158644025,0.033090649309062095,8.10395348479252],[5.638762259204251,-0.17775160760038738,1.07639378124784,1.8362629619582123,0.01902905264555064,-1.0137428438365046],[2.1051108610075384,0.17963586020403657,0.4740026571042686,2.198614471160788,0.13162536406659653,0.15282539908203727]]],"bias":[[-0.2938459913721529,4.322800126940417,-4.480477127789103,-0.2464446657982114,-3.9928484755552787,-4.361091980244619,2.6161212335492614,-4.822765338603442,6.115953668023136,-1.0535750665625394,2.2025404690092345,3.666691595840081],[1.0792759763089181,1.5775026636662952,3.799287732950737,0.4172302707487734,1.82458902092704,1.8437909773609675],[1.1334839741920646,6.03492310302039,-2.143570986497143,0.09824812290384194]],"nodeValues":[[0,0,0,0,0,0,0,0,0,0,0,0],[0,0,0,0,0,0],[0,0,0,0]]},"target":{"pos":[0,0]},"savedAt":"2022-09-08T18:53:25.267Z"}`;
